function [y1] = myNeuralNetworkFunctionPCA(x1)
%MYNEURALNETWORKFUNCTION neural network simulation function.
%
% Generated by Neural Network Toolbox function genFunction, 03-Apr-2016 20:12:37.
%
% [y1] = myNeuralNetworkFunction(x1) takes these arguments:
%   x = Qx349 matrix, input #1
% and returns:
%   y = Qx7 matrix, output #1
% where Q is the number of samples.

%#ok<*RPMT0>

% ===== NEURAL NETWORK CONSTANTS =====

% Input 1
x1_step1_xoffset = [-5056.0903838081;-5232.80464493105;-5262.03281675414;-4226.84065721073;-3061.55752761727;-2481.08059932431;-2668.49152468121;-2062.71143198931;-2674.79133986957;-1585.80532809139;-1855.28659759419;-2138.933242077;-1464.87575030056;-1891.05942316935;-1550.92301467289;-1558.55031421401;-1880.58025217544;-1211.63301322409;-1473.26361164742;-1496.96567062359;-2147.40120379614;-1416.97531240391;-1179.59900061453;-1221.51921058971;-1377.03717211143;-1141.35363403791;-1346.65145746813;-1119.29635948063;-1034.24015792391;-966.680365849001;-1356.04692527471;-932.755408516088;-845.374641656677;-788.475365276712;-1162.71994429424;-998.155176048967;-1202.65109530082;-721.030246911846;-798.307789397111;-1181.29251885661;-903.449682828551;-1021.32671780254;-1082.27017314636;-987.273581036131;-874.635700044359;-595.501206270569;-791.49570334933;-629.410243862171;-891.786680390409;-853.858827364783;-823.82823252933;-807.885540172982;-675.258244820634;-932.506741349368;-738.226469707759;-743.154884601721;-668.369936101818;-1019.99629138173;-879.864849021298;-867.063730142306;-670.16703727591;-704.477335730948;-637.530764521274;-698.780463543084;-773.340030725093;-957.616656378792;-549.523422834796;-673.902868314045;-626.610997522214;-1196.47015188382;-977.844893904799;-520.094899619218;-644.581353708564;-478.081821444352;-697.631361690844;-829.044979803137;-590.016991990926;-604.865443839787;-646.457036270697;-514.393804318867;-578.678621231437;-931.118140184055;-437.949324724048;-518.572673571799;-498.604659154442;-454.004928612972;-737.240881330854;-656.353710525994;-471.499870131973;-417.95667874994;-540.478089548348;-574.015034108593;-661.332648712861;-413.162362982109;-474.887794454779;-418.291807749832;-469.393432028326;-476.985465627875;-518.682839221907;-500.183535496527;-636.440300686089;-473.71708828355;-656.392625907541;-462.266883175754;-540.571952023861;-498.02907559455;-424.346371664836;-555.84429987771;-519.859937582826;-464.230682031201;-406.429579858768;-459.722424508409;-414.7776657723;-537.952439879872;-441.970245554445;-337.762954514261;-626.284490625642;-547.672995283038;-390.082602819684;-422.72687529439;-456.167555772024;-362.374895019378;-353.880563016578;-424.927015933821;-347.967320537507;-351.077668882723;-384.065185764767;-508.13068894802;-348.651502750602;-555.757544300041;-318.905501245079;-445.421409771642;-399.292981376842;-402.920894496035;-439.2496425133;-289.967030970854;-449.207905183621;-312.317143919696;-330.998480468041;-346.981226371663;-419.854168554874;-318.745361299237;-291.775583688895;-372.232781155202;-372.182568476534;-364.659418929391;-405.414747520092;-319.743131691173;-466.238783459951;-274.551542461334;-367.817896529174;-300.453770875044;-376.108796298102;-360.514594276344;-389.624785486436;-375.014045563654;-292.782122967249;-352.761063622404;-354.707462111437;-337.249752578313;-292.717399734544;-263.013776209049;-253.257115905899;-298.489796870821;-287.096179409255;-311.043147765028;-368.535678524148;-302.454454094181;-304.159244518154;-355.827180395979;-314.368365670883;-329.612349289211;-300.394144606461;-274.127069390991;-380.937744661618;-334.979157614881;-310.734466327412;-260.96100070388;-335.088397815183;-300.317886026869;-270.887694725357;-271.233483315442;-243.253049757143;-307.118354357549;-336.036367777439;-264.364447743091;-266.000303049468;-264.583834742451;-293.465505650333;-299.506464179012;-323.503052322054;-241.773686310779;-275.424466256575;-263.760297106063;-291.358124389533;-237.458448762158;-231.66165477455;-252.321058774401;-248.516232437436;-262.050685545258;-274.271224514995;-256.192169194166;-272.647828424901;-331.371061165774;-222.952552247134;-237.19954890289;-267.469469100864;-257.840465184155;-320.684637244723;-284.213761868428;-258.765933944625;-255.485745252353;-265.570145345935;-297.186582148959;-243.530385287969;-215.331329203641;-254.174656358832;-230.197691730607;-266.997933473745;-238.98967926562;-272.577291622083;-299.234513640029;-257.416227441017;-196.835376262;-286.895004728497;-332.538394428787;-203.109110526444;-292.073726170306;-239.881256659471;-213.967907713486;-232.371494347729;-295.590366321917;-216.660749732962;-224.599215278315;-241.526036020994;-236.09654255779;-334.823022377563;-257.113873381449;-184.486366131072;-220.159740473897;-209.212883237589;-224.913857468891;-285.761433781505;-186.472562403265;-222.383112079842;-189.661453932472;-240.239796981234;-229.186343207783;-217.267743870091;-218.347745164898;-194.48440211925;-194.368643297748;-251.100509593333;-248.367404614203;-243.90499974221;-216.96759366095;-204.881590484264;-216.310920548848;-279.598535630497;-205.127902878277;-335.755381519252;-253.958236653917;-285.179871379645;-225.615317920795;-254.022994170785;-221.247140828576;-185.404964889773;-237.774701127498;-231.179044019664;-281.936100057133;-175.063709649999;-226.683393225661;-257.082890341222;-292.858557686635;-168.759103279839;-263.210533029054;-277.22073706192;-231.125893328807;-207.736481693666;-198.952580340005;-251.108818732481;-175.480334067261;-180.987997949711;-190.206730156051;-203.127138238122;-216.120103553564;-198.457136357167;-250.901063754701;-191.327674333148;-272.850968214609;-207.403758963828;-257.714303384868;-193.975607525145;-177.029904907578;-189.466922202354;-195.825156386058;-179.733420972982;-446.920574985723;-205.890384600361;-152.599979565013;-314.588277272393;-220.454171213965;-210.631858841086;-246.786770241595;-192.636126574016;-232.442341453647;-232.437647033967;-224.188300672938;-220.936287904032;-349.922105983584;-190.783236451057;-295.466962387572;-221.745158334503;-197.134777018118;-145.099501652829;-244.761788438223;-177.453637895446;-249.678109681264;-174.429694998853;-208.150087479297;-194.867240115701;-173.899954039446;-159.489573665861;-245.551060489346;-207.708867625865;-213.131807288934;-162.331152291185;-195.902418030582;-130.512753748263;-206.231712153757;-172.932551135031;-181.958676702357;-253.001351133516;-182.450735475137;-177.755457197921;-131.704528247999;-147.056057506097;-131.77453635417;-107.597859840751;-187.732102336845;-101.107253935289;-179.092973224808;-181.189332572476;-163.21618431655;-148.637776679859;-159.179937438992;-172.983524522829;-170.43001809833;-169.306723879029];
x1_step1_gain = [0.00019496006256547;0.000208207450208516;0.000233127036106649;0.000236333111980886;0.000281932623510365;0.000373300982770589;0.000396051590494798;0.000473366697573604;0.000394649970652876;0.000509676981154338;0.000414283304917883;0.000540279567367903;0.000533343395135794;0.000484250119467691;0.000588855520018844;0.000591188218367365;0.000617155895975291;0.000760468732734742;0.000724470047685748;0.000759539891485461;0.00046639930821465;0.000685434045104034;0.000741089363937583;0.000834339311542185;0.00082468197020958;0.000692313835489751;0.00084364060360937;0.000892462446324086;0.000905806248071895;0.000958041548493194;0.000740900644505312;0.00107131630367855;0.000931666845518075;0.00111291153767325;0.000951005515964609;0.00106146146296887;0.000909871043617477;0.00124680108983752;0.00130977533285124;0.00104083011434994;0.00114401263417579;0.00107530974544155;0.000944155427981433;0.00107779010507243;0.00100698864708023;0.00128144850190509;0.00114418430579528;0.00119088202894024;0.00125887945072942;0.001206570404938;0.00132501379005289;0.00127512714932887;0.00116762694849766;0.00119584063532485;0.00142592131247657;0.00129348553466383;0.00150450367595496;0.00109785118411602;0.00133075485889788;0.00137161034909637;0.00155353778816315;0.00144570456966351;0.00136092427401087;0.00120226925963386;0.00131756532258465;0.00124315979806148;0.0016790715886925;0.00150349773682085;0.00166785422999222;0.00102751923904291;0.00121158387829511;0.00188258429410708;0.00146633590135078;0.00198992202905229;0.00141854166685365;0.00134725867973053;0.00167851718892004;0.00178627298634307;0.00177947985178572;0.00189812488110776;0.00174030617688761;0.00129978852801517;0.00188617762196793;0.00179542349671344;0.00182545311464179;0.00212786613818739;0.0015161817584389;0.00165695238450825;0.00183486673692827;0.00200456269323265;0.00212587134988038;0.00181189063842252;0.00175556522349366;0.00202272039409441;0.00221761411801154;0.00202497812673034;0.00182517952222176;0.002133540501866;0.00184790151897547;0.00218211148277775;0.00184496230936867;0.00208713429247127;0.00189914600546378;0.00231020208078665;0.00198071863577911;0.00197868090541976;0.00226905047636742;0.00214840167902938;0.00188185682195634;0.00252855042701392;0.00242306181593478;0.00231506793055641;0.00230800649304;0.00198526785472999;0.00209705896159959;0.00257138925514119;0.00203456900712367;0.00182160906096951;0.00221454967421315;0.0024650347742893;0.00229366013839659;0.00257922079111984;0.00281300743636138;0.00225180495566098;0.00243079824314589;0.00276126620309995;0.00288788394020721;0.00229022868973151;0.00306593740102934;0.00229857642318232;0.00277886796883755;0.00269703391043501;0.00249973962168707;0.0022816832569384;0.00269414963630631;0.00309972543077685;0.00239981144337415;0.00279993980745483;0.00288038278032986;0.00270319061521728;0.00276938704256247;0.00315848924472585;0.0031011692765122;0.00271137745506388;0.00266976726543534;0.00283707005292875;0.0024766144177462;0.00321049002167862;0.00247613965313977;0.00312710734911809;0.00288294256977461;0.0031365967884108;0.00277401001789075;0.00252972084326541;0.0026037120767391;0.00266034482123786;0.00324930143851679;0.00296765223027952;0.00291544720591866;0.00303974450965767;0.00359012627898954;0.00337753649364351;0.00349288178063023;0.00281960493580206;0.00294044987545281;0.00311477521956979;0.00290001487430715;0.00269960300866785;0.00290748738711374;0.00288794531597857;0.00311570382324826;0.00316747812014072;0.00352343588626188;0.00344495227818484;0.00289599391892309;0.00338556950641079;0.00300847301923604;0.00352312533891471;0.00309812748051249;0.00315336740350754;0.003380747480959;0.00358778079531592;0.00389104618031871;0.00325285515481064;0.00311976675622725;0.00333257668650553;0.00384277860143863;0.00328801542302244;0.00333546465478327;0.0037887884437581;0.00337968061139122;0.00377883782775066;0.00352967488984193;0.0040253479456102;0.0036463575454097;0.00386352045542239;0.00371071129154562;0.00382987658891886;0.0043919599107265;0.00363492024504638;0.00298760757093991;0.00372718855976681;0.00361932425223577;0.00309137541044426;0.00372291651212448;0.00371064786341295;0.00326368086440674;0.00443041427603445;0.00344148717293212;0.00382677517870353;0.00413843585402133;0.00358882083046492;0.00361384980535666;0.00370837666762258;0.00429151772982648;0.00425809248657707;0.00417398714744905;0.00427505569136133;0.00372416869276108;0.00390389388465626;0.00389130460140098;0.00343685619657926;0.00360592058044146;0.00421489942738909;0.00384403477264143;0.00349259101837897;0.00448853880750433;0.00393933233779448;0.00430654690359227;0.00402186601330626;0.00348677432752205;0.00385599119690766;0.0043646507487605;0.00367393067902099;0.00405053061222349;0.00411921323380063;0.00321513229702282;0.00389502378301968;0.00517107234308575;0.00447371930978578;0.00476815405887071;0.00399599308517689;0.00371462420434886;0.00476138476056066;0.00408125095587308;0.00419297344875324;0.00426751263985196;0.00418685155332414;0.00440426358780111;0.00403197020567117;0.0049490685451213;0.00462412980696693;0.00358261085705419;0.00464507640873847;0.00447038648539392;0.00434170169737947;0.00444403773982005;0.00452492897165332;0.00388335235055175;0.00478428937164432;0.00350979552808596;0.00330352808475372;0.00406082939213914;0.00403089391357561;0.00448345963085028;0.00454603159253474;0.00472743580964284;0.00404202861391975;0.00485830204940276;0.00415666371661694;0.00454031874930649;0.00487599670041268;0.00445017369323175;0.00396879225806715;0.00395719069150785;0.00393380230400897;0.00368635890959929;0.00388049975437528;0.00391537837646134;0.00457838913368044;0.00470125353010015;0.00486990487561004;0.00579818573533508;0.0045342135572604;0.00450091401700281;0.00388717199426326;0.00450271001580824;0.00425385660284159;0.00528501002166238;0.00359475097558297;0.00401703322978647;0.00345494107666222;0.00419818704697294;0.00511360530809141;0.00521043620913844;0.00466197528475872;0.00598745657875949;0.00222525656825246;0.00405881664676165;0.00526158540100649;0.00343826354010262;0.00418296334534344;0.00507790016945677;0.00372599212528683;0.00501510351123789;0.00499333838884523;0.00401937234272767;0.00444871272680665;0.00423607951624554;0.00295206605188464;0.00473596647966488;0.00439554639246538;0.00518526910526367;0.00557089710606551;0.00564662481389698;0.00534794729647198;0.00602438681489075;0.00511024425972508;0.00541631751496257;0.00525255891496443;0.00555424468053796;0.00514942685419584;0.00619342746242596;0.00409835828533176;0.00512631986548039;0.00568180623338915;0.00530884766828443;0.00587160346734299;0.00567755828110676;0.00494592617528781;0.00592957062859515;0.00548520729223227;0.00424133730444705;0.00421381736608138;0.0064680405931783;0.00590255691293535;0.00799701791743689;0.00701117711921105;0.00674366331382282;0.00695278109386536;0.00810277648323574;0.00546123940953539;0.00568255829142314;0.00624525719832752;0.00705502564206612;0.00573205878917911;0.00545516948521601;0.00596334101406015;0.00573414584527116];
x1_step1_ymin = -1;

% Layer 1
b1 = [1.1815909485160101;0.94854170746036881;0.54197273609679142;0.28518167815448636;-0.29817301312533612;-0.2141465084548736;-0.22231087026181154;0.653298643057731;0.91247109928599235;1.1854295676235007];
IW1_1 = [0.32206632005349722 -0.4458814718074024 0.84003493490672509 0.27931268485709654 0.48718237287461325 0.082990176078431427 0.33088689963484008 -0.066527274640496264 -0.71796698984992269 0.69651166354307426 0.014448323041197836 -0.035787686488860423 -0.059111402752470871 0.49047887466924917 0.16164348215878102 0.29999477524524809 -0.30394523265376333 0.23143789084272573 0.0043221489084203334 -0.049574795625798099 0.09699892500807375 0.14131830194725364 0.1657939182017738 -0.1250997283676302 -0.22998791171849403 -0.090688432394688503 -0.39022804326312327 0.059031060744652322 0.50079881014951511 0.18726157222400219 0.07899990319351459 0.21412321094599315 -0.030427513195897565 -0.013032041891450023 0.22742604833581498 -0.021765961159884446 0.046203872835736709 -0.20182789972938889 0.066695482469482537 -0.012252223339781276 -0.11212923050458867 0.026192969078273544 -0.024224641281773276 -0.033713379703611379 -0.088127612784389867 -0.018490469438737719 -0.078131814887171594 0.12035490659404333 0.13233120658056599 0.027999884855580241 -0.15722343679813799 -0.077888096601610529 0.10670711624319397 0.065704987651391766 -0.12030675392650161 -0.042278341363324132 0.070997092194947722 0.10981659353917796 -0.10217431098404728 -0.049595671992053343 0.049084952608970576 0.11593369417494612 -0.11003312685150439 -0.055083224006884202 0.10861203327907216 0.051903441731221821 0.037315777480350844 0.090459526112483965 0.0068172387288471005 -0.048330238071476121 -0.11183377992765341 -0.016819527788763739 0.14331912049206783 0.13745353704898267 0.00069952844631170595 0.015976534310240466 0.056083406885465231 0.12289101729420623 0.20250743479494956 0.059754476069102294 0.11288777039387947 0.080604575459959138 -0.05562891554191729 0.096440538744254817 0.059390574273262477 -0.1328592969358284 -0.10481850347575669 0.017273220273163983 -0.18708363251634252 0.12650372582282696 -0.026776460660405003 0.067517914140976784 -0.17047793521715449 0.076687965715527939 -0.052382190573780803 -0.04202307694040263 0.092016446085693065 0.030933085818027648 -0.0076434070601640001 -0.047579421976448759 -0.065998420680650635 -0.062211774542700118 0.055571791854263759 0.064959861809721103 -0.11063954190879345 0.028190144651249329 0.074810825983529283 0.040463038861063755 -0.036935670423721027 -0.025919125826948657 0.038190287498091752 -0.063298170015173766 -0.044488643177597598 -0.045398424233605864 0.02430235836035731 -0.034798145345253099 -0.067764169736152763 -0.08464266339307755 0.17307532350982735 -0.22216695079632495 -0.16295936508620779 0.10631852968646649 0.12994201233919964 0.10855460062052714 -0.0050814631956610044 0.18854967308223386 -0.0065576487309827484 -0.20384624398061552 -0.063174327626058319 -0.24466685871480395 0.11257983646447077 0.15297699243822005 0.080127753752297012 0.01795513893430432 0.054319652542282514 -0.013074254719348456 -0.064619498124263319 0.014187583349127168 -0.02103548980741218 -0.0035564021860772866 -0.059962972114767893 -0.14311422234972859 0.019406266779228337 -0.16965315470096071 0.034410533318274303 -0.060062714701455203 -0.044718006434129841 -0.10349378709012388 -0.044779594610033162 0.085175367848585898 -0.062913711546762799 0.06537861539604968 0.035163792825387861 0.094347436036024745 -0.027111001581450439 0.052661170416574858 0.1980862116792263 0.064972983943937093 0.12969841229956131 -0.21945213683228512 0.088963216695055899 0.027867408602947438 -0.05533662729395087 0.11870226708251257 -0.012768445534870736 0.070016591766561984 -0.0026188527597362302 0.10729221690989509 -0.056908355921163542 0.16233498360620099 0.062208463969688474 0.071499764564477389 0.015142385291565428 0.1188951962789164 -0.083037073635377878 0.037234750734057249 -0.012621563980176592 -0.17816445584022794 0.29041989614442165 0.096461621592807675 -0.014376856508339645 -0.16114338985556823 0.094497495500064796 -0.055371155146297341 -0.1888681098046559 0.14506873256009595 0.034957647886312164 -0.096098025641347423 -0.1758748740280319 0.098737111685011328 0.040460031985912533 -0.16543851848991217 0.009102346208296799 0.11294523604196902 -0.049936312966694429 0.19253315165096013 0.10688645761319672 -0.023187372683846609 -0.13484689494962659 0.022838859076940714 0.12179987430726039 -0.17311785769310326 -0.04975413489754011 -0.047632340630911478 0.05409924887257004 0.12618633212561453 -0.023923167042537333 -0.093724133311262614 0.071579325965827709 -0.052872708725786498 -0.057320699410143131 0.094853916693170864 0.025209716251079078 0.051050179989200389 -0.11089018374032919 -0.068659917460261372 0.081573537210814451 -0.12056331607812364 -0.025930580497454031 0.10556436318736666 0.055110302073045285 0.14286141027317334 -0.054131071321512979 -0.040053022644520875 0.08843164298145427 -0.0050492011135116633 0.032458125384920856 0.10192467909391137 0.019069837393630423 -0.096132305926440495 0.10454773368509998 0.040681596791906555 -0.077846949592176307 0.10291548679100128 0.00063388156302570872 -0.10378771781136684 -0.10826647222527247 -0.082721791437645631 0.18480264589653209 0.052992724345472732 -0.0078934014680289953 0.022451886967768571 -0.040716953749970461 0.093383641519924912 0.12259417918403601 0.097960473916390595 0.00013707091857664139 0.10863951344948422 0.021090234831180315 0.11131360375224958 -0.10968776792764127 -0.1061465274458421 0.11170473039896994 0.10670878399972354 -0.1816723310103644 0.0314047091091142 0.10435094843117525 -0.091476733994750037 -0.19335050365499845 -0.024531781681373283 0.020164293369339219 0.055369001531827715 0.13729804041266508 -0.063964616847162106 -0.054390788547010113 0.015650702237248661 -0.011029871059007872 0.12658923454329907 -0.0047191006262390922 -0.039159035908242573 0.097897184760442443 0.21216772851001944 -0.017476161513500593 0.047567302494313922 -0.090582812161015769 -0.14398599521268457 0.015173024571621369 0.024433894264862217 0.012846877928114781 -0.041459963850212833 0.034381553405985185 0.020482258676013727 0.14218182924140649 0.13023832929721524 0.15401341903870833 -0.07489609251075105 -0.016879296798811498 0.11166227925035696 -0.11592108873765437 -0.1512405078695096 -0.1045129882689726 0.0084938926367488666 0.20163919627229038 0.13391898533361177 -0.045758073632045405 0.097935917954609944 0.085409486723849348 -0.093599831150911403 0.087407763930178448 0.0081361153792434276 -0.085754341287746394 0.14409377614713675 0.03682681532885819 0.032930841048044467 0.05115037082255116 -0.036220282718781707 -0.087659770614539015 -0.05185071995942174 0.14269356202083142 0.10861933834886646 0.12655630392848702 -0.20309182131917317 -0.050249187296109235 -0.037404067711003144 -0.12591490400774571 -0.15731641815102027 -0.074109286563401239 -0.18846761307139243 -0.029556364592892379 -0.029617034415420899 -0.0075266222797251998 -0.029111651775886142 0.11881367593603341 -0.15351279814005542 0.061739007237968373 0.012243598357489198 -0.10016314264044279 -0.10239803502901101 0.11689364340430601 0.019564644481140155 -0.0082263300959247478 0.110237214534702 0.082001443559820059 0.019905427453369786 -0.13563874719374941 0.17866727111083888 -0.097483482097942858 0.077362884491365955 0.030982610066422455 -0.12436962712556728 -0.007233279989937549 0.089918759275549362 -0.10100744237693957 0.030443988175517769 0.05106302576973111 0.14591528122188435 -0.040015121528334134 -0.018845070527481019 0.078203509084557782;-0.19764328303850492 0.73655465572736079 -0.10366694108516572 -0.92403619180873675 -0.025141282050426719 -0.041245914889406474 0.11427911712692589 0.17978179026915697 0.64795167450108804 -0.021930237227879876 0.14272204571473138 -0.02931861550286036 0.31928225567641744 -0.26355571645766301 -0.010393897391026887 -0.059547410756760358 0.23496968583302799 -0.1657534803266292 0.017470625394161755 0.10899186363419341 0.081229737446478739 -0.052307015845975025 0.01598795251338099 -0.027335084100699417 -0.044465623104614618 0.26040590049390622 0.14565944111365647 0.021405915348980162 -0.25619520172571864 -0.0015937529266868969 0.18495713915294931 -0.19604839842964245 0.030153942183558116 0.13509683540646247 -0.0092445609068574491 -0.1094953119261281 0.15413719183451782 0.067372136416499084 -0.097261057505045864 -0.052322779663792535 -0.024552505849529421 -0.20627255684586712 0.046373857492474829 0.024672558713594233 0.037575793312130526 0.080508764289115547 0.062563956282196923 0.0015309870940446316 -0.084883626604509779 -0.12373270955631532 0.045126846524263409 0.018638025673011264 -0.099484919342273437 -0.12314060814074698 -0.045410356257018641 0.14697491738123686 0.040019439646143906 -0.0068342805826924116 -0.013468877387273304 -0.034002669582035079 0.044537275409093288 0.017496731333183316 -0.0786894403111979 -0.23776936523079717 -0.049909118136258326 -0.051789338562172951 -0.014455676717990768 0.031559863327706432 0.014280925258925201 0.050104498994196008 0.036295169317815505 0.087437250266819852 -0.013705827552674996 -0.024338675192777475 0.0073745260463378599 0.086951218574750536 -0.046570356392992909 0.034538488436962257 -0.088820321390681106 0.15893559120822215 -0.10791527409735387 -0.056392690577109633 -0.12540651158664454 0.23241669002059792 -0.091525896524608075 -0.23193010315620721 0.0033935131072840678 -0.058696851851225411 0.28671109555816116 0.049676719108534689 -0.17281040970618311 0.113872603154102 0.06379528701872049 0.014118144831402162 -0.0042271859911378364 0.13434431128500854 0.025273493052597629 -0.11107104870538623 0.069264859724770172 0.01570630123508205 -0.042505587745270655 -0.01866570895101672 -0.20034851046138041 -0.071043406177526094 -0.052833153202585227 -0.13697229314347148 -0.041086643804030161 -0.074813153186974415 0.032388455713352388 -0.075393266820155888 -0.15356526792130265 -0.079563462601092455 -0.088566359271422687 -0.038753159936041608 -0.048627073350459717 -0.063728284235905347 0.020104962513904832 -0.049233050370202293 -0.06103508053354903 0.059432680404322265 0.090974540565067694 -0.0073846167586982814 0.12570117059989058 -0.075477936604188084 -0.080219605846510639 0.10637557059248831 -0.05817613509798323 -0.032454278953661125 -0.014138577590211312 0.062326348365667257 -0.069983814933614691 -0.084641676718339484 0.0019999633369194628 0.041357484193098808 -0.035063346676052362 0.034999455576810799 -0.12771539968829024 0.01539926736539711 0.15895708001185005 0.058691380295403495 -0.083347313604838449 -0.058939292112504191 -0.098800180101092192 0.145254459109117 -0.036094624020861658 -0.04155612757499328 0.017041467709522033 0.14878647312169327 -0.06915684669107848 -0.015742410974244767 -0.11764214061745945 0.056653540231363084 -0.0084879069562492811 -0.041051621700893937 0.18075067296863237 0.025543919384730711 -0.1251457668926825 -0.059941158862516393 -0.03992487513950916 -0.00016295200746949297 -0.12638746022810096 0.07126347745671284 0.015792681559574012 -0.069033815310741389 0.10837930020036704 0.051492900678397124 -0.047627347740361432 0.20181309434353614 0.24842499188574782 -0.062604784968472715 0.0030539235198170558 -0.056214142264040728 -0.037605147660992787 0.1328778922016369 0.031612128845783669 0.052672104632064828 0.16085515974374937 -0.037539500690711193 0.048310378769429924 -0.08513402122417256 -0.15579010579727728 0.24079500137709964 -0.0092914997434744243 0.081471183149804546 0.017239125977920485 0.043215206112571167 -0.073078874532423191 0.0058232070099787977 0.0096831178692463014 -0.16925956700673475 -0.086506368879825171 -0.081386837151733574 0.079256542615818756 -0.051180812814715475 0.049929065529884284 -0.15429568023407828 0.013619249214101967 -0.043016211304918818 -0.12563212032430432 0.017054887782196482 0.21745101886910617 0.12599439415712957 0.041170559973040852 -0.094579820835446429 0.047038091263488319 0.18618401074329799 0.10673799101862694 0.12322251271757524 -0.20896493545707254 0.019388979747916042 -0.14501475546973883 -0.041798858463982229 -0.013427618767024163 -0.092036571335822909 -0.041325727997987081 -0.10963106156767387 -0.05497942794652505 -0.019622641740674143 0.030902253347780528 -0.05533614612525399 0.090425471187390666 -0.0095154870319937405 0.00015512932105484108 -0.018816783979723681 -0.0017931028855529205 -0.094574530518002062 0.050963861707483592 -0.14250494674036313 0.035568670462607428 0.033714821151252447 0.15594249119783718 -0.075893360736702234 0.061486137193826569 -0.09769028581452259 -0.14930645149141636 -0.051110616335435594 0.17410479703151419 0.068481005178421067 0.089983539967631032 -0.061933240490036151 -0.07244672646113097 0.062558679164335024 -0.10212562159742386 0.11471061685124607 -0.010167612530182796 0.053666768545542247 0.11751329182086757 -0.098745466376886165 0.027717171547293626 0.10272677100112579 0.12308629126565741 0.10332326149015905 0.091687249915535535 -0.048024557757052125 0.10610793952904231 -0.11392686397824064 -0.073223681625487175 -0.05764351797194097 -0.0015941100946540629 -0.039125244755651031 0.045295042402007657 -0.061405119307857692 0.063260592927296452 -0.027663361634627771 0.031949944690052676 -0.051057733707578663 0.023277699349548167 -0.12038440140234653 0.10993050483699238 0.12998586022400921 0.0094485591269314727 -0.036448359812895473 0.03133938405181496 -0.0062258678500854356 0.19600726044559066 0.15603678426451767 0.16710420230785325 0.10183952095185876 0.12113542219636682 -0.035734674736600115 -0.017345535823495836 0.11734878396897129 -0.06684056426225217 -0.056886040538040895 0.094271281986423885 0.14390307101407401 0.037846969310526168 -0.11183197699687455 -0.035238771282885273 -0.025358425220224974 -0.043724895165415396 0.093317649399601826 -0.085065131182233009 0.08947723226915677 0.09222250874940352 -0.087334828771446382 -0.094313231871616235 0.080644177924520888 -0.091162983178384269 0.098291359569351963 0.0036489978795025508 -0.06564246300602207 0.057188434790363514 -0.024243300138388157 0.017255376387214496 -0.095039392434175862 0.07600987856633809 0.057206387847528489 0.047533164897206964 -0.043725279409322894 -0.026704903425125368 -0.053437906667078809 -0.13712985809446224 -0.11825016527483381 0.035594522377748052 -0.059813544030362965 -0.033711112659021526 -0.019304700560943362 0.038529413056571225 0.046283052436447675 0.077945008032425447 0.058786014250053496 0.095000868497613078 -0.0016897806204262096 -0.078939918434343712 -0.14540162747160965 -0.044547030733587116 0.032267571220188973 0.12045842386641152 0.096339515587313559 -0.10520315078447397 0.020005192115733258 -0.039222699535382197 -0.0083320790748075534 -0.002573638907818236 0.081819064992012996 -0.026430504145972446 0.0088597494783088648 0.1702347893849864 -0.041658011142517964 -0.074839629207143252 0.034948855856524692 -0.064013963135161056 0.043295657523562486 0.0014652834727167776 0.11608400302469307 -0.015661422569492951 -0.12337502616534406 -0.0039171902464207259;1.5859529171917637 -0.80554010596482106 -0.32809702459546641 2.118111473646862 -0.63077855459373122 -0.15386924086436396 -1.1344522436292381 0.063217821635303081 -0.44755691989029944 -0.086779307743031553 -0.73128323989924671 0.14403624938313872 -0.37699851097797937 -0.24520811938291021 0.14198551535365278 0.0065281657711827555 0.050833177435429124 -0.2497007849493493 -0.11562192749804713 -0.063842617601769333 -0.25485961757516873 -0.084732734262035897 -0.014925497949234931 0.16883452638376489 0.1626445231901896 0.16697893693316238 0.047530801828658542 0.17682504650373929 0.067651497966827401 -0.027445185071692264 -0.080594982961723502 -0.10195631596589484 -0.10570868988723765 0.13559418365250533 -0.12674778159071567 0.17714326499089317 0.066387307279854479 0.11766344247601479 0.11275159740190002 -0.25371942144155724 -0.050682180541731923 0.40461610442031692 0.089440185235735187 -0.25100432665547101 0.038527326266828012 -0.21479564417050853 -0.020674690653441137 -0.017076815722049537 -0.026078967402220755 -0.16520452027297891 -0.01371662557336447 -0.057954062485985454 0.047948745696206239 0.058039341880196826 0.24387671480492662 0.026434193040587386 -0.20388758365645057 -0.26676059431654042 -0.094781005223332424 0.15123038209091844 0.16352566827761325 -0.1044777574096331 0.22039210739074136 0.32891767516324466 -0.28997378233696952 0.146391620651942 0.036347146722608525 0.2610541748767744 0.013324443847305793 -0.021648417230387011 -0.15087257682345814 -0.13605652775840341 0.19155121252748364 -0.055588798328752645 0.15777359327559803 0.11433195446421536 0.13692412555934877 -0.018115441643908489 -0.13854892099935284 -0.00092649225878254108 -0.051958003683135634 0.0460715446708857 0.14279676911331729 -0.10905170922883223 0.10167132264990193 0.145519639244273 0.18021738320822864 -0.1076373652435835 -0.10951250172415743 0.017653142044863894 0.084584654559027972 -0.12902126359799021 -0.00038520348870982931 -0.012510068862796759 -0.051584363702116512 0.038099480254529902 -0.017898301789139041 0.034159185473513931 0.05418867744437024 -0.11616936545615479 0.11987554570294802 -0.20145166509539122 -0.17214234968436268 -0.032096703761848186 0.030441544518146919 -0.065170632095786954 0.0050531412230229132 0.036767339305035118 -0.078219460302403093 -0.069904025149237853 0.070296733583639248 0.038308222211660206 -0.036288865667096208 0.073585582408614333 0.05611377983802053 -0.11332496764378115 -0.089272542890800777 -0.11719206821742059 0.11867439257560554 -0.036025072846098828 0.023037130644578026 -0.011527964781782255 0.020808042884809991 -0.090091967590185326 0.15227476788101524 -0.16562293352717791 -0.14588784125562895 -0.12314459137801426 -0.14679994414072639 0.064571714230134497 -0.030968003229294265 -0.014098839276083861 -0.022391114754521657 -0.051752830120864055 -0.14236307673455509 0.21554336875498215 0.091031627650919891 -0.0047582517108059868 0.1261711510327567 -0.115717538512462 -0.0091857941430708665 0.22880850503945638 0.22209467502369171 -0.092228208316057589 -0.0068640214552349709 0.11326077317426636 0.061590437496298583 -0.0092181324845299114 -0.11524017222302983 -0.079826451793778008 0.11869411108189315 0.093703379688396218 0.058970882125047974 0.048837954559427778 -0.18576186578290088 -0.013470677454916164 0.08501578705015185 0.1077688916120472 -0.086446220778071473 -0.077012182590342815 0.030710769621533074 0.0057303886075855317 0.091136068950412999 -0.126591688829395 0.081817604292924576 0.0027379147173225236 -0.071944714215649047 0.034710184233548304 -0.025599008841893634 0.072336130230217455 -0.088293520932013328 0.24202455961500349 0.10103455590763678 -0.058512242870131875 0.10227320121188491 -0.0054379101245736437 -0.060566612097390338 0.02088122800264617 0.041094214230857823 -0.087936556082643294 -0.063409635043952584 -0.19756947623620505 0.076773232103220554 0.11416320099709021 0.10083849880802973 0.026220106738979402 0.045445963265273004 0.20022603843455086 0.27861548748804932 -0.08774773810510135 -0.0026208329296116295 0.057840258192946775 0.023005766920751864 -0.00067157737900253403 -0.10426937620465691 0.14225432983919348 -0.011590828917152315 0.013843384589462297 0.061373918929744448 -0.084941869121483798 -0.043716578816727338 -0.0048910452297133127 0.089070003758257146 -0.055566212474310206 0.036476151229361223 -0.070846366043148534 -0.10045655427812161 0.073764477196398309 -0.0074525660100113501 0.11856244689202085 0.2076024983404744 0.093015262194990608 -0.058161655379285485 -0.12169651400418534 0.18980320661650776 0.16395035691868873 0.23819605892114495 0.11391842612743307 0.052900474921313972 0.071689811690081456 0.0070788956890524904 -0.12871233475496455 -0.023831264289995466 -0.0030352807258688021 -0.093069965593898005 0.12533602210172387 -0.1407048802564882 0.11409417100952929 -0.012023178353567102 0.057487217061721808 0.077511428035298355 -0.083769016765326651 -0.068599651419803467 -0.057235538843758448 -0.10884661745177893 0.046594653204353846 0.052910314832093568 -0.0068152992690509104 0.035000226945838112 -0.22852660225974195 0.19424209913743126 -0.052572254149667402 -0.0068367255348565029 -0.072140832471570285 0.11049769679580036 -0.042046747957300103 -0.045858128819125751 0.04347291852301445 -0.014342397270570541 0.013952140570779628 -0.06218168322971291 0.029318978825069189 0.099243158687920399 0.032791100887899556 0.056883838230581379 -0.10369079840162575 -0.03164398748557333 -0.024858783920356817 -0.1480891957994192 -0.0089377275032412936 0.026528505167417185 -0.057898846670973662 0.15134663927674261 -0.17220904405106532 -0.035660768641593364 -0.026498246079772757 -0.041304456368732673 -0.056958798035331049 -0.12280602026265725 -0.082457635316138256 0.048045490213915944 0.028544901614536301 0.14506414548519836 -0.029392493559941703 0.1398017022406281 0.043151566098213509 -0.14570185901831698 0.082602514831123575 0.14045005430339949 -0.067524282686715384 0.11197801103275352 0.18921872670957965 0.022098825818725788 0.038849846395836198 0.051559144059326281 0.042585813525767569 -0.068939777206376313 -0.0086645923047268415 0.027112787406760479 -0.050330791687292598 -0.039332947113004141 -0.053860040590040181 0.026400014432332357 0.096742423080733025 0.14812168334338488 0.0012177825239373685 -0.032519140621621652 0.12049389300854027 0.078350370790767107 0.094413112475198083 -0.021152758268932426 0.13895273858211662 -0.067432193942839627 -0.062152845794150001 -0.0095946321757612724 0.12582351861292695 -0.033366697628097311 -0.023626993049924376 0.090099205101461202 0.13655453235982595 0.037717131068960283 0.027555714757139117 0.0084406752158171835 -0.080719198758347654 -0.010290629162434048 -0.014623467080484313 -0.061110509408102746 -0.070622002716292542 0.10611278578896419 0.080529996101888074 -0.14075699244563775 0.051041520948299682 0.056001522094905699 -0.023820207016189268 -0.03102924273771912 0.015611427688984322 0.013900127734369569 0.0085949924067432459 0.02536336897497083 -0.14467138758308787 0.062227653752159336 -0.03225375684029471 0.080285323986994783 0.02524808979412297 -0.044631884893224463 0.083962861970275027 0.097531931876334757 0.004209084772506106 0.059429409231945701 0.033515470154996674 -0.063079625587447716 0.058351551918515307 0.042791743053593963 -0.07513639770872127 0.16667136270236882 0.030747700368602322 0.10154927844455366 0.14556611322854437 -0.048905835492235893;-1.4133844705669463 0.23839589427292762 -1.1293561885560366 0.66317078030281995 0.54366728980168066 -0.83095387076300464 0.043339243110894744 -0.28617568607052785 -0.81908430920987774 -0.10066666406751017 -0.69027127739964933 0.16510199329690156 -0.019267445446627882 0.3717995838225942 -0.075139043665338898 0.47333487510570638 0.041219347213396582 0.079704941867221726 -0.030460745065210484 -0.071233112917311575 -0.11951344352735903 0.19979355626502884 -0.20645360026506537 -0.3287286039472741 -0.1214757482751225 0.082589535402347217 -0.24115856238415889 0.14425515111111784 0.24779296279731472 -0.14571894282024078 0.048956223847120318 0.025692057628980698 -0.095803205202258046 -0.12475051222609324 0.18761921657447481 0.096550283091268521 -0.098551496566211955 -0.046854262291812089 -0.04581871238044985 0.050835798205599025 0.073215781065176885 -0.0083725512028462318 0.19968304204486487 0.027164306906280963 0.025481591682271106 -0.071415230046934286 -0.12873947181512962 0.19947325749269731 0.088710035545630436 0.0062543844618411244 -0.24039989041204493 -0.026144653751483567 -0.09426929310371289 0.080833566765173726 0.039094274769806696 -0.00017646335498087821 -0.24297525278379492 0.17881893031914128 -0.09813497286992004 -0.0510746732094303 0.18678649189435448 -0.10796866980976974 -0.16881112270591242 0.057839963671071817 0.014029229255370007 0.059772594354721501 0.081572654588774759 -0.19994114532467921 0.0089920640997519334 -0.083272876262745821 -0.19556833748994762 -0.0084361597296523146 0.13181648705874027 0.079736825855389604 -0.038358824518521857 -0.15058452798559885 -0.0039101585533240649 0.046288789176387853 -0.10416879123770392 -0.10532318827206825 -0.16641631098127696 0.0981002896161043 0.029496281520397925 0.030213371258010772 -0.14310967489101484 -0.026188309467109989 0.15390981397454986 -0.087853524519669393 -0.19515819671453488 -0.034076395653713294 0.095543544707368713 0.041042583911416596 -0.13324520513121585 0.026016857869570267 -0.17219746917523224 0.07598442229965191 -0.020260715964010266 -0.21555776215037689 -0.062658442280959126 -0.05204002991862372 -0.092963080914740426 -0.14987960919102719 -0.070697100840471122 -0.0080560521033457531 -0.01078167387586001 -0.03053620655333774 0.15300199317709637 0.065449963510369649 0.092989343554307158 -0.35529197220187292 0.1185953012938309 0.14984863414749711 0.099485334539282141 0.017526810151333304 0.075860291447482547 0.0089598461449089811 -0.060358107252090905 -0.034260119549191212 0.12450697345337189 -0.20258206067558635 -0.014741931911163327 0.074110757378343758 -0.075287910158971377 0.040772132306267458 0.052930257498815955 -0.050522388997929255 0.07620946568647162 -0.12041204262118289 -0.087105408483985694 0.023994717396840518 -0.18117605771432432 -0.14763892660391104 -0.043416417509311037 0.042759111895586691 0.049398256691893787 -0.043793904995626388 0.069491551511325231 0.18896705745755754 0.034001532773181027 0.057907494871768703 0.024197275569741876 -0.066648857279488577 0.11602026492393873 0.075784373008541961 0.17490364462134506 0.11330754421989858 0.032946908385836429 -0.11122166190603744 -0.049436155213546995 0.051789913198596479 0.18112696739494813 0.091569972219329956 0.045564776370086768 0.051252821602165356 -0.0042609091716161659 0.023714900132411565 0.13397602790217986 -0.098430894508884315 -0.10223556860289817 -0.026600009405984136 0.087914955258927355 0.12973455373341858 0.21077791571784568 -0.19807553316660309 0.12549993442844182 0.056665450923837825 0.043972798542858738 0.061248141827906319 -0.029540213863055408 -0.078789689339612709 0.090701989318606263 0.018415495644868825 0.00062333890062542274 -0.056265914874653648 0.019540037319914556 0.19904573884817692 0.0062241861002224879 -0.03033535107635341 0.099048619832523055 -0.037675684209636288 0.098255592218899332 -0.17689132524688186 0.0017257454569138582 0.030429093743891602 0.061624852779409857 -0.057896983292115692 0.25228773515342506 0.062763554002062641 0.11086616521849575 -0.31540660695517314 -0.15515010746596919 0.058526679157165723 -0.0064459688598193969 -0.17831459530275751 0.017064589210766864 0.15118709473455791 -0.028591159344400905 -0.19185575340241814 0.10288718537452803 0.045554299884215027 -0.011144634521882501 -0.13265428809455013 -0.194149359229324 0.083929688234497826 0.025728142048601254 0.044561020195169769 -0.17925651176582447 -0.029527420125031918 0.0037639615010150022 -0.14887191013275425 -0.088805372362581458 0.055921165376362637 -0.054175884301252489 0.21317418419092207 0.12148312714302129 0.067811673938703021 0.064611074533079835 -0.086290565311604284 0.13054083439572578 0.03828908482581804 0.055161320506770709 0.094238859038759365 -0.014078421057897555 0.049274262435526177 0.01180374851758716 0.1062795001521321 -0.14308729856885505 0.15488054480201738 -0.022725712449768034 -0.1114811062169941 0.14144109898916549 0.0032515317439515438 -0.1898866299417204 0.055217479729954437 -0.0095896601758512136 -0.002509232360164434 -0.022133350265215866 0.10920824000124366 0.063103753465813386 -0.035429500514661101 0.054454758544488814 0.023249110306911621 0.10739839966577032 0.041643903630683633 -0.026922170070271638 0.010954790852693902 -0.021233522445071033 -0.028658790657896272 0.18170688398944851 -0.13510816117795607 -0.051513877567296029 0.10906773507055048 0.095370065159363429 0.10580880842719294 0.14383234555685392 0.055800681355378891 -0.032904856693679048 0.069901248302034841 0.033048438968104908 -0.033124114740264526 -0.018042740900977936 0.017144732148435805 -0.12504668121844595 0.0111031557658107 0.069915216664747537 0.095156266660263111 0.0090774376994014021 0.031300692706075502 0.033881274776658428 0.039338314803174339 0.12175418057809483 0.075896012277924738 0.043860779361783162 -0.047026777754966304 -0.15549544983641009 -0.010760550844664273 -0.087938116922168255 0.051834410319821785 0.040954200648077407 0.0037936829535927486 -0.040706865537815842 0.086662221587998578 -0.029967046504167604 0.023752890987082723 -0.028541916279142116 -0.10046644685587877 -0.066882710733716141 -0.039073562720889146 0.12183267539366277 0.14187823897758478 -0.12469247153653099 0.022068741835902291 0.04085740052689462 0.030472818058188144 0.0032200732581819463 -0.053172265146569836 0.17544826884960749 0.15399678315940296 -0.07725484730127305 0.049393466824524432 0.01789947870097508 0.038166467694361085 -0.010653320789262252 0.037143733711526676 0.098558601937560622 -0.085379085530221374 -0.014578670684004816 -0.08057133512649084 -0.0043487717673587195 -0.12739659552609991 0.086065591413122935 -0.17541536595741541 -0.089064793706925272 -0.058150999205408629 0.089916201522258848 0.055929928549156162 -0.080964904708794347 -0.10380649333017823 0.0078932390717301772 0.0690066212143403 0.062911173329623593 -0.030795852601694672 0.13925322497051787 0.00090514757672259809 0.13005887081288309 0.067989376785272199 0.066384458614138178 0.05684744923340844 -0.023805567373534616 0.19007352671189337 -0.069596984577011772 -0.051274876364064949 0.019403289198956123 -0.035470123118012939 -0.028706556015572669 -0.12674887416482769 -0.067056847633874317 0.10027667511586841 0.12854780973927996 -0.06037697695971303 0.12174245414192716 -0.10195358792709105 -0.10986698039663884 0.02268507456336865 -0.12942822562030074 0.014595026940329804 -0.099048943352174373 -0.14270180188680817 0.10255170443271829;-0.54447228582947882 0.36777294251358966 2.1473586110020459 1.3128791911194386 0.16727463656427741 0.66061430787266673 0.13537440914141205 0.1393474059278787 0.44925186780819426 0.78341477736839682 0.19100380434872855 -0.38885848040946769 -0.39761735009048732 -0.49550992422426382 0.11760839753685225 -0.098646580532920497 -0.54629393761687717 -0.057120068269177066 -0.030514816262335945 0.003386917177486752 -0.13358528921214893 -0.29257716842843862 0.11703674678624874 0.36122571901961564 0.065033445511436555 0.078995338353882602 -0.1638699281802653 0.054196113952154082 0.19657090278234818 -0.015910417861018676 -0.014068554708171191 0.20132979094935302 -0.10188262417341674 0.19112892710745716 -0.16296451035373438 -0.21266095051585371 0.20164500713023953 0.019318690308475377 -0.059619742736803032 -0.11596263182675735 -0.094779914240981408 0.27685974244102846 -0.11664530066891345 -0.062378689925351498 -0.29873113276065238 -0.17708197736465789 0.0061009001057731578 -0.097353485386369829 0.17593039741421207 0.077440569264380282 0.18859634908839157 0.11788721629272553 -0.15677340437295378 0.071449166393340813 0.16929841385136246 0.15852189113464837 -0.0069655586247282259 -0.15700932376268453 -0.24269190332290816 -0.029646082858254024 -0.08684292532026687 0.0057461298580505065 0.18840533788851577 0.29314506095648768 0.075357073828234505 0.13395317659284239 -0.15882810850940102 0.18865732390450779 0.14796448016479649 0.10636923746761229 -0.15506104817435742 -0.015189277451450104 0.058084363612423057 0.10193760571916692 0.13870641353326676 0.071560117712520729 0.16442852894283294 0.057206653529843672 0.22110926575495676 0.20971642555849901 -0.16748123599027787 0.0049761064113457119 0.11640989840459251 -0.17312568005545126 0.18435573919002171 0.12345681479605458 -0.038077939441998922 -0.080326991697668049 0.11522108548455764 0.068086965894739573 0.060556162021154616 -0.07072095764421972 0.048173047409149128 0.15200638306677161 0.11026406465368042 -0.10592460112140337 0.20394821361875701 0.038429708725050638 0.12211814107385267 0.00033629739252080985 -0.086378415073667114 0.0023655188204498938 -0.080073119832657247 0.082189119381936931 -0.078836385776752935 -0.017363391590987324 0.061598764429468489 0.15142212490646539 -0.091090509730698849 0.1445124904040187 -0.045298282603718446 -0.049442098239230715 0.064040651762182238 0.12380731034231508 0.18776971936909878 -0.034214729366477452 0.13014445943368702 0.053500423568598195 -0.0070536292707510809 -0.061577315423440915 -0.03647771147287826 0.22010546987049337 0.26232625099502088 -0.022573071188166142 0.058318786422600882 -0.17504438500892347 -0.0070472071745773359 -0.044268317678375253 0.00066329370711002171 -0.17907741168640418 -0.046159599683325093 0.12816196134079186 0.070634442608881381 -0.017856337714759744 -0.085145840983295057 0.22326092755661275 -0.18909721788057868 0.029954326755384768 0.055788281206414762 0.0072111888537475322 0.10698560668660839 0.014142000014707935 -0.19756528738481083 -0.092517577154795777 -0.13236477101629507 -0.090182219667864924 -0.24059101559265481 -0.06018041711141419 0.079776081976523319 -0.0021800512307981199 0.12199840959657592 0.0862045937099572 -0.045708429858356499 0.064320205201156139 0.013513944967749561 0.1323722220587287 0.12944475051348958 -0.16327552272604975 -0.11280487261046743 -0.23640036566630263 0.01052810715331004 0.17168744228380584 -0.20590738569085312 0.048398497596893436 -0.022024395556451363 0.021431124590892248 -0.16055869925103633 -0.072505821540650189 0.033255433218061091 0.15136599200770073 -0.080445438886716028 -0.12296126892084804 0.075877371313437358 0.11334081561368513 0.085959578844573059 0.020337578718252671 0.0077201398086582905 -0.098131735539014248 0.094166276641737753 -0.056207011357024141 -0.10671249728356318 -0.084805066488155306 0.09870106873395193 0.067586322096014881 -0.071797817081304019 0.1633840990765644 -0.21235674239959937 0.043749198546166067 -0.11418160034750899 -0.0019405489807317222 -0.021851670747730964 0.008266391349998993 0.23382996807589468 0.14045110448987136 -0.077705961372504587 0.019131612361159928 0.074197686169242744 -0.049317508711891569 -0.11058222359403455 -0.041282380480915468 -0.10852644764801717 -0.12919442539874898 -0.12444445577619136 -0.11507871772028552 -0.11603185489912915 0.045268939509884837 0.1552648579386379 -0.18978770206239723 -0.041983287847526043 0.088447752211913519 0.023062219619610025 -0.032560958254925679 -0.036751812712308311 -0.13059277758607518 0.056149288012837632 -0.11682199109498542 -0.064971847088132889 0.029357014695263351 -0.045575335011711807 0.089047642302397492 -0.1056293649915343 0.0045122481849956889 -0.049106038097848803 -0.041279621727104629 -0.058072362128463333 0.13047265770682145 -0.10251255192503445 -0.070872110406486277 -0.031694122415178952 -0.060468318248863763 0.041011966516211147 0.012480419406407385 0.15573195021159536 0.096683958525712585 -0.077170624902746357 -0.14911668526957306 0.08635135743260075 0.039330898276150106 0.12015582079499446 -0.04927785262192251 0.043964134065636602 0.036208635248194225 0.0060924908445666275 -0.01399496064363492 0.2100675799919757 -0.17962473777962637 -0.0073188971832454834 0.089284212146213654 -0.12896665674231816 -0.091911500724872572 0.013140114119867196 0.081985791998661114 0.10330561617634462 0.055585027622232518 -0.046911921435690736 -0.041291642165391856 0.086447201618032044 0.10129623874311178 -0.13319630636176757 -0.12767166790085641 -0.028472368622151353 0.14944981042258659 0.032426074261368017 -0.18719585932701274 -0.097886577683925641 0.20857778229917104 0.028877954233732302 0.085271167437899725 -0.0031764567102876193 0.034916901883408957 0.033549226069222927 0.027766112937755657 0.082449731235648652 -0.035765668168474291 -0.12022859269656339 0.00064370018906994826 0.085001426371151087 0.11669672308908195 0.18793239337251855 0.10681742330696142 -0.066653771328278072 -0.075297274256988608 -0.14003677358130873 0.022039263857272565 0.081837992634569312 0.084796933952553152 0.10254330977060747 0.027679929376958633 -0.00046104502727172523 -0.024530899062602429 -0.003207238778520314 0.014979692756725418 0.034911653537879402 -0.11802714691384436 -0.072699340412999483 -0.025653744451544849 -0.093128434713939987 0.055767564228328889 -0.009300447691575342 -0.031488453966174036 0.024063577821147805 0.016875129124761839 -0.026339989817986277 -0.073520904020921637 -0.2446936484175857 -0.15281931487322931 0.04358850034392215 -0.055200029393228205 0.081487525181754492 0.010617347495525512 0.0053790811114685149 0.049685645552372676 -0.037839456012663336 -0.053147199205913605 0.024128990234957265 -0.037764764330524392 0.031810336793888859 0.051633198928492857 -0.01906997219775269 0.076785413004381076 -0.041986451691276669 0.03388070872590232 0.0038416552937643148 0.015854273833713253 0.063292820329117913 0.025919881278345949 0.12288693573303368 0.034024228835316861 0.060232520683045285 -0.10289967968372621 0.12592132212867491 0.043673873468366368 0.069697393788661341 -0.022948126798493177 0.026699152316990438 0.017835126668250607 0.094433818302721587 0.041461836275479044 0.14876279085614033 -0.086191212329798816 -0.035542752932033961 -0.044401747385633517 0.0064457297698115781 0.0073947750078991736 0.09380871969765818 0.055961172221649473 0.093199878058748131 0.0041072336259360045 0.079032420197447009;-0.11602318448618212 1.9766109417329627 0.98951576916753603 -0.34424566003466051 0.49979407389491853 -0.23204351909973148 0.17305352483048059 0.05225840505388684 1.1253919221736206 0.08509236462781955 -0.14692461041275154 -0.025094095219962444 0.34525885848343624 -0.34332451832092414 -0.042372256434912964 0.060169089461105205 0.069018229554899863 -0.0043190495355808827 -0.060868149314972766 0.051746680186545498 -0.074674652054716809 -0.16827179309198737 -0.28171724089405692 -0.1922864481110651 -0.062205204734517898 0.011292557979259011 0.072429663716850348 0.19213795531418629 -0.18934556169966135 -0.081021960131653498 -0.098145563315033643 -0.024180318403814877 -0.01299814033705594 -0.051026972476910799 -0.081841802565116306 -0.0027063819563761561 0.042602719233725217 -0.076826783138802049 0.0096348921385447876 -0.05570833645707423 -0.015517739161922579 -0.13022322193160768 0.02672014343673984 -0.0058910842886573563 0.067181598056743078 0.10148590258293444 0.0037956052091462555 -0.17655832778876351 -0.18163465504489548 0.046962793400928002 -0.10088828965742741 -0.075725199152708284 -0.18809922465242276 -0.088363633940744202 -0.15306549985297013 0.12092005616895453 0.1033155420532794 0.11021272788616199 -0.14919567839185544 -0.016159201093576138 -0.0071052436709856653 -0.01728983419253043 -0.045704743921913177 -0.17323434060047196 0.13693304060365177 -0.014213240764595967 -0.17348094643730136 0.048718582944191589 -0.1246319358640379 0.065666535575749099 -0.03535465351156869 0.011466946352148587 0.034561925274959465 -0.081962078507836392 -0.094879254597338508 -0.18724848333037719 0.075117630501800092 0.13931914477106802 0.18755782544320762 0.081978902726728406 -0.086829373132731064 0.032074083040966386 -0.24488172236467121 0.20531549107302427 -0.043038215388083334 -0.042709071867226472 -0.087420342205390675 -0.15807616686370796 -0.0063383426979136525 -0.069379818285606285 -0.14198116733297689 0.13191406868583841 -0.0085062987140323894 -0.13353794489232201 -0.0029613728020926018 0.086581915588776662 -0.014524710141028647 -0.056799606575296528 0.12833677815135205 0.015805253691657674 0.042044585153457367 0.027250975336516263 -0.051087423020884246 0.0032801961129752368 0.10665766129420073 0.048016706004544371 -0.014153972307938042 -0.1687312887246005 -0.10890133927680133 -0.071256352244729718 -0.087336645432587359 -0.061826822056786822 0.12184723186538828 0.078197659841157341 0.027487986704950493 0.13474812843167486 -0.09403743001135885 -0.058617198773819705 -0.053506076758175758 -0.0040864659384334395 0.10509637049300417 0.21109123453264789 0.15800234236033164 -0.053518603838074441 -0.15867926301128571 0.11708909885333776 -0.062546230215261359 0.14020706900722166 -0.00076695448254214191 -0.094504376852407451 -0.19019096612245379 -0.11791573101034672 0.0089492739532508921 -0.11310973358494504 -0.178823605398122 0.10782601462168219 -0.071043453338639526 -0.070539325269084685 -0.0034225330625334656 -0.060499205023730088 -0.074037404867609458 -0.23012535994895028 -0.054734576850509475 0.15934543326155601 -0.12685403504021747 -0.034178231874971876 0.020236026105695016 0.086967033902076912 -0.0085077703845064349 -0.016299830088861697 0.014273289878419828 0.06723970331061023 0.13352444368299099 -0.052708881641431247 0.092404398541472171 0.018832057425204576 -0.047172671653743919 -0.19706141825028642 0.01604818046652088 -0.031117543436055769 -0.29273011283799794 -0.021785966562517297 0.08477492903000701 0.04051903505295143 0.13766498431988614 -0.021666771322042845 -0.071074521085653639 -0.086107230728168754 0.22014224666943807 -0.19465574082707568 0.11018670451762042 -0.12646310668531202 -0.090165764163289433 -0.030093274459143338 0.074047265703492696 0.10686519104001092 0.13559731940124542 0.076209230196342431 0.018397907167077947 -0.15040806595457273 -0.031501710421617909 0.11063537308641073 -0.083490313840547045 0.033581625867654348 0.085650614353475846 0.10698553259939658 -0.14942880008398943 0.053224759464905562 -0.020424372191215911 -0.10861157227239232 -0.08403303120709453 -0.045765331595484772 0.10092601374583531 -0.11390897536117907 0.072437961884484592 -0.05778016102807268 -0.095623141775004555 -0.070280390413407556 -0.021835945479669584 0.10300572090904364 0.19285279978171288 -0.018555407229975108 -0.12525962215722955 -0.12697635438858176 -0.11918451875393561 0.075649957997715275 -0.046450711357450956 0.15739083215426164 -0.084994215891369462 0.006886684720262241 0.069035733248390921 -0.18936242815492985 0.019048334476643003 -0.072109234239810194 -0.028343417839823935 -0.10997225780298978 0.049570385807975827 -0.027778658817670616 -0.054423411315858046 -0.019391558129275184 -0.073760680058479411 0.10324963858184895 -0.054818843551820318 0.066770951029153452 0.018907326726504792 -0.01411734850308221 0.065537352572709831 -0.13029453536313462 -0.0031056773936216312 -0.11844452839886047 0.098497949536419632 -0.021114895310688674 -0.037456094126687753 -0.086131949558790971 0.029501615300388532 -0.027963818799635855 -0.010600797470890449 -0.023593525767236261 -0.055372106598644007 0.15609858915340913 0.0095944888454064549 -0.0021226039032736384 0.033546195660616597 0.032968106655345039 -0.11682210771728166 -0.014284727867592968 0.14873478957648795 -0.058624882624186608 0.056601029642523136 0.083284175148949952 0.0081482404398730453 0.088145003397879035 0.073829437533634773 0.091825929162207748 0.0074127202041692729 -0.098448419955348018 -0.084337519113983281 0.10860314072260871 -0.13420040608006464 -0.12281265875801005 0.016134813993432466 0.055548490085424888 0.0068243447900911604 0.12765059463086934 -0.037742594831071605 0.032452630839689182 0.20690681704107239 0.064094906780719399 -0.10582698004043073 -0.029580640810650441 -0.08543985949012646 0.021561025888366125 -0.032189668814778735 -0.038185783007027671 0.091180524487160838 0.042935505760012441 0.052073293287440592 0.025058129850450087 0.0043105291213641293 0.0012467650180540508 -0.099953349935985897 -0.12213641931210195 0.0547638766255771 0.0098953664451617816 -0.026927958222452 -0.034348147958902016 -0.061096240955916953 0.074778945252812465 0.11528978277485258 0.04933026345495873 -0.16482361156513006 -0.016886074353180687 -0.099185464677338159 -0.13112354145037783 -0.01430768972360965 -0.026105876110984586 -0.0052085467672555244 0.017679020741289016 0.03509365242765862 -0.0010177488237737282 0.0035327135008753861 -0.050257027148271204 -0.00059818009200171725 0.12388380978323743 -0.061904841497173096 -0.07503398903732468 -0.0085651250413268307 0.026986195090284586 -0.04512837936967487 0.063970730309560908 -0.0013544014416672287 -0.11274333721399035 -0.041173119735091912 -0.10042249477453695 -0.053177373055525022 0.089912431543867799 -0.058717075269619647 -0.057235718822678708 0.19523672373664167 0.029967486969478433 0.00043310274133516588 0.0050418154771593934 -0.098282154370503458 -0.058272466623474926 0.083679452769635121 0.016528353915044487 -0.019079276222111492 0.02195421413252089 0.11225406178340705 -0.16068469762716711 -0.064041539321471025 -0.10792415110056333 -0.11014367824625648 0.044110657940420371 -0.041023139853384447 0.040773961961032938 -0.00028255689718470738 0.037117090770504291 0.13608284156603706 -0.048342306921250425 0.091329896115921697 -0.066757143836446181 0.11796229465143364 0.075582687687595351 -0.12186181390037566 -0.00740601748534117 0.10577565575875303 -0.027252843449206119 0.12627296955282388;-0.38236056684537456 -0.24339214486866761 0.53072303266830323 -1.234744173603701 -0.11184539977234667 0.49582900657729828 0.54443865331584163 0.025843680723794185 0.49524732172598201 -0.23701028303520469 1.0931956675033989 -0.29918863842987997 0.33097458058244528 0.085762026740173872 -0.031446899485267299 -0.42478303217237628 0.17203573774554887 0.052772732638079106 -0.043762142272739855 0.066370515275190486 0.35831216515151221 -0.17447637940391181 0.25126321002407481 -0.064757788469894925 -0.056937670872441365 0.021872797075582432 0.12764103566331625 -0.2619739391541665 -0.16949734037423198 0.029501792769457025 0.036474401886855343 -0.073413972350005005 0.13395610700161226 0.028033432531431236 0.091162968102165509 -0.03068447730526681 -0.17442596834045621 -0.02348708854592357 -0.14691193014056866 0.13540960296364457 -0.055583715044509249 -0.12206880001764832 0.017377447736534792 0.15533390729586363 -0.033629636003702348 0.16069522466123365 -0.13167834938396775 -0.077720866531646754 -0.078841742579683641 0.14533574653810888 0.092051206888741272 0.056996607331581642 0.16701255085497918 -0.022391154482013943 -0.088026751468485848 -0.031726666278754263 0.064513592839854875 0.1236233908993571 0.081532168253647036 -0.07116070211685703 -0.13731584460772778 0.20373868642876194 -0.1106291375817394 -0.40281031113448973 0.020544865599659866 -0.10365503518678797 0.061392024530934848 -0.17243858560755573 -0.012027067459898483 -0.057434190909409363 0.092187745434382601 -0.081386190978980089 -0.070895931919762983 -0.11638270992973636 -0.17632997381246865 -0.073506320647735102 -0.21011636956130716 -0.17121050799672202 -0.025622444277384731 -0.14348525188835576 0.10625604895246953 -0.056015799972979015 -0.015050919165058062 -0.013659630088128916 -0.12862300602411311 -0.033262288215715696 -0.081577723845268152 0.049656482257799221 -0.057584060395686601 0.077580340189712785 -0.074281441170002321 -0.018630212409670107 0.11086456770244274 0.0068872346406553316 0.045959061492652414 0.022981123630065818 -0.024969163374037397 0.13034237465822535 -0.21983762227811901 0.082520608422870595 -0.066204917576123554 0.38626078405562592 0.24016003927221144 -0.009730560020860481 0.1426779002129655 0.10576881350456535 -0.20838625614297268 -0.017485911937349823 -0.07940797965801219 0.13003187164505053 -0.023775480860299757 0.030053707501885747 0.04398037627777053 0.017135054142064877 -0.029675560547428266 0.06716159829760962 -0.11537356626480492 0.041719728753415751 -0.0061664418986083578 0.034500668525924198 0.078719103819935701 -0.08274034968245314 -0.054572536455623516 0.04109091508415768 -0.012304927249405174 0.076414913945382079 0.03016618934385492 0.11031296038827046 -0.064218175527946827 -0.012900382746135478 0.30305143612833407 0.2094303719688263 -0.038256103602498842 0.12714280036040343 0.20876158401815104 -0.15277239854672175 -0.053578167769953902 -0.093799181407081531 -0.096032969447190544 -0.021432298572581766 -0.01665508409254993 -0.050105309744136121 -0.073241633414854554 0.038889043628127312 0.084543302015449906 -0.0030094987221801722 -0.15075926723732547 0.038214987035409743 0.092001609840424228 0.097317943876275556 -0.25666467931575521 -0.16321373661898878 -0.0088560752705562004 -0.12556883001795158 -0.10132731808492113 -0.123094189961346 -0.062607080372110685 0.015966645599723918 0.015019849650828455 0.0062965370388273646 0.057899443047853466 -0.18278147873251499 -0.10985772299426995 0.17402725153307386 -0.15647958279062127 0.079095174735398094 -0.011631825147849233 -0.014049815222631181 0.13197528600300132 0.15058704508016965 0.10980685583750888 -0.10995104940811951 -0.09951366415501095 0.055573458341365324 -0.18895389849540214 -0.035105556345048416 -0.032751323440768122 0.15578301177263529 -0.1621452718345342 0.043308647886662686 -0.049476847491504959 0.044043641784148324 -0.028487606430538673 -0.14125770431455595 -0.023290503710594924 0.061036512704629717 -0.049555844138308748 -0.22536525775023308 0.0090331160004297091 0.16281529197056802 0.19139636229335097 -0.076035536339046458 0.011993948410054743 0.13104026795631854 -0.04378278144852301 -0.07224045481352448 -0.042931751999699848 -0.077465087258720075 -0.07451647269180417 0.10616521102933722 -0.12094353118086143 -0.032859875383469614 0.1222026612262859 0.09534201423307162 -0.042867870175722661 -0.028347296169228944 0.11861062067034271 -0.11026794696935029 0.10902803553107746 -0.068557472266484301 -0.16637406870528793 -0.027102174923418477 0.054845304294467434 -0.022340758633782983 -0.089612627971800043 -0.2335228997346806 -0.068374002797442754 -0.076848342574730027 -0.1755296241457546 -0.0095508872585835791 -0.025596379695721302 0.12682447128094204 0.11284547774261268 0.032926578088551275 0.074060162526114776 -0.16975078637706234 0.22369816529314004 -0.023886187130489168 0.040413979116783183 0.014758073360626033 -0.22704239479249189 -0.026065342033742497 0.011520768630776014 0.007789226010182183 0.10618379771307999 -0.069348200019314382 -0.22050495823723465 0.15483458305209966 -0.099491815510375725 0.068102965941375132 -0.062415165246488581 0.21083024135179737 0.0064065357440892213 -0.074219704102890166 0.044780021814295419 -0.060628789925481041 0.022893644263950089 -0.00026852241268661761 0.080481894776045684 -0.061004096302163871 -0.023165587640869161 0.041071418691766774 0.087323467422840695 -0.04147851679858694 0.025655628717866377 -0.062423290626204248 0.10846949939007855 -0.10804763948054548 0.057174040776039839 0.036994261692450299 -0.0018566773866574679 -0.19950559137209861 -7.7087282356362238e-05 0.099409765608883816 0.017000995858009148 -0.056500635845579864 0.083283107937011547 -0.14090280249618953 0.13453891457862044 0.1401017804905027 -0.1401833633873375 0.006378734580215391 -0.0030091701389790408 0.046659294425509187 0.0053855713724515666 0.16665080167802188 -0.019300641545859386 -0.13484475706750362 -0.023588305671209665 -0.075735269358255697 0.082086039024077517 -0.13365136456668106 -0.037628803033169449 -0.067884613508101488 -0.19993970495219895 0.039783022856635826 -0.081986619808495531 -0.036337563096967194 -0.086104306796244839 0.028216665341226667 0.0018442686553263648 -0.16593385328877314 -0.15292223571803709 0.080574550015511656 0.032315268419407829 -0.070851037360428012 -0.05866432221385208 0.043582502497493292 0.087138326781063258 -0.062455755418264883 -0.081168251950708967 -0.19669109847643604 0.05858193893214389 -0.075198820189544505 0.030488856214033584 -0.13133307558910223 -0.025444020061687601 -0.0050870357586033895 -0.11051440322901655 0.034499834441709003 0.05820425643292268 0.060462887905691889 0.033956180900861097 0.011319959716053958 0.066340180134198304 -0.012415011260315655 0.018191784158242214 0.084589735939364391 0.087293215676644484 -0.0015280286616362897 0.17923460038498759 0.0095999294973008603 0.022112360176811782 0.078825915234465263 -0.027128142334428458 0.087619162762391692 -0.015744094848212382 -0.11205737044239421 -0.033376443765155375 -0.10282728305142498 0.064752466184812299 -0.14578636352623228 -0.060217924845643075 -0.035394800024153988 -0.06513287663511505 -0.16751299087142366 -0.03483182203499028 -0.013503300973099817 0.035158589383653967 -0.01251337067080378 -0.017055822645882603 0.0044788776599661052 0.11345134038390754 -0.11168812345326175 -0.0076167982733249028 -0.069520365486221869 0.059418830251495469 0.0042901076935989192 -0.079946333460625088;0.18283744843062427 0.26039719412599616 -1.1203034403792744 -0.31914961742894732 -0.003580235981297232 0.16911811391327508 -0.21723480759159033 0.40771789929369134 0.0089995772346679204 0.62372368127476518 -0.80336025875530104 0.42211080063272649 -0.41895465279636546 -0.50902879614243823 0.15780135781673651 -0.21358584712621484 -0.33933901814887307 0.026337291833871995 0.090414023439819177 0.006102694490478143 -0.32454468839259226 -0.04369225137104582 -0.30368226238321921 0.28425235192217441 0.38415321959853482 0.064559117229295138 0.030851748550278349 0.25253319528850593 -0.10813031867906098 -0.32486255318134649 0.050527139291347445 0.10864598027193845 -0.037668492720382363 -0.097929482830138748 -0.28681415541117611 0.15323920044392056 0.038861561783496021 -0.29570363106050979 0.12394254946236641 -0.23284604099952039 0.018514109935081745 0.22228724954871451 -0.013333241702825425 -0.32605016169924939 -0.079961406397633689 -0.19194889636897125 0.10916470849128579 0.00069737341150167415 -0.035503264067977422 -0.035430433198337746 -0.11852209023262196 -0.024658369950128694 -0.023755926885626198 0.086319511355889333 0.14365072857621194 0.17104587423577408 0.097911416902503434 -0.33288866892332913 0.047181654291992718 -0.12675750698839344 0.033674732799818259 0.05580075890601742 0.081553044810818071 0.26009364420683584 -0.044736117940137154 -0.0080784229723809622 -0.05523394906218837 0.20637679090740912 -0.033881225818879174 -0.11184348987642798 -0.14561313325559588 0.061812198179918773 -0.052309664210117547 0.069880000417736968 -0.087588471463518322 -0.10801635404235903 0.10618824604917927 0.093871141477872927 0.060455756418754503 0.069446809646304952 0.0063398558480728751 -0.051689821256189539 -0.054772308434947611 -0.066906282761421895 0.1303097433384445 0.067112589163522987 -0.072615856245005647 -0.079892113009191731 0.0071457654478065177 -0.088362709001051587 -0.070149347356362635 0.11044925474798442 0.086021059594618268 0.031032362417939888 0.034419826048110211 -0.0046361405799229642 0.03163833319725784 -0.033741657507314345 0.065194481000838814 -0.011566407107061645 -0.073085226279206467 -0.15762607747342014 -0.15186176630528023 -0.060479615815213744 -0.11183407905162578 0.0072466241764936237 0.12497339614159901 -0.07442417784329744 -0.16018257928679147 0.14498542640709453 -0.1101988775198572 -0.090909800284356662 -0.0071451568270993237 0.04045953371981393 0.012492763466399229 0.072884404015787746 -0.050741153835907472 0.06977027351112905 0.0037087513102324306 -0.08957261974508271 0.13837378814005166 0.04199841538118828 -0.1036336452125264 -0.11723932146026199 -0.067418792701721159 -0.1254562122036528 -0.062896263704341149 -0.02393045625261166 0.082524091087549975 0.046770742413457349 -0.00973083686923178 -0.050431752305942948 -0.046204344287410333 0.035322520078225436 -0.085595101133257717 0.11478369434521983 -0.01529771393300949 0.014583337793972575 0.15187104068332019 0.060855381048855593 -0.00017039603995105653 -0.025283138174978521 0.011188383361985164 0.15131263552668137 0.030626298007196684 0.043623134773223209 0.16744460315987475 0.089435307747823309 -0.13092689390848869 -0.0043592133327065366 0.10616572427295842 0.19020798037851747 0.17856567029611306 0.12407351645346254 0.20052103638116614 0.13733518061953609 -0.13429750047907485 -0.19330225100277185 -0.069370967260096214 0.20947963958597485 -0.10294026877684805 0.06006572028228898 0.064948725789859954 -0.11202070173525544 0.15555678540680357 0.017886283992065519 -0.12204388395671588 -0.044207021516402802 -0.003925354898000645 -0.12544731231022119 0.008656292271453505 0.018430828717494914 0.044733660304565832 0.045651617204919621 -0.056211264803021951 0.06857501715195928 -0.057427505852981328 -0.057841125746871801 0.019249813988168819 -0.21516378856233284 -0.15667672085170428 0.20610527340437759 0.045420530333144193 -0.013797864931327376 0.072348686385330777 0.043507496006034707 -0.16978817127398835 0.099304710110669769 0.0086813774892055429 -0.12570124749759878 0.045455675784308702 -0.016699057754792333 0.077077988225952312 -0.093806621482488486 -0.049793604264808208 -0.038816612236422493 -0.018371519806012319 0.071345230173062019 -0.068319799264092942 0.037999075563582563 -0.09308501526723309 -0.023038962001680079 -0.015280865350450548 -0.11285213499454019 -0.097393667938608999 0.22655500195308273 0.11258449752768791 0.16229863829132044 -0.0092865596401822733 0.093405917979592454 0.065132898980089102 -0.0080582679947390524 -0.081320589011733307 0.018712016990739801 0.16275329532073241 -0.016587647184921082 0.083449545165234965 0.065916493371240725 -0.015201662889196464 0.10500070271400086 0.00074285600398696968 -0.023549100207195833 -0.072495180698912878 0.089104920067235041 -0.047652552092693867 0.046052285441747123 -0.14634313199584678 -0.035400406045979459 0.038003725046058222 0.026139273394855663 0.047380471945084275 -0.080523214303131321 -0.030658984420878888 -0.087666318640557156 -0.12268925021238378 -0.046125837049217813 0.072522875813526871 -0.074447735149501565 -0.10626935852794926 -0.078012870488664621 0.013477759325373709 0.0032346013662899785 -0.13359543694644138 -0.087527831400961861 0.11301748182347858 0.013364876837501673 -0.014806344073809399 0.0087745984991669974 -0.052299787097159725 0.1156092968151721 0.023314953209828203 0.0090417829436290759 0.023699002879139588 0.081370294417907524 0.10357728076659116 0.088578868314189485 -0.092964305278925186 0.12731484842840621 -0.070825955675747301 0.072039771176484524 -0.05297673147457773 -0.0078939646106617363 0.12907740771006376 0.012560295222360067 -0.1160881480728093 0.071277699113310097 0.034478565533535802 0.068875984905058973 0.059522437418525462 0.059240496057940989 0.024569885534556208 -0.02613602184764751 0.11351620224743927 -0.13547007488101898 0.13356005218861372 -0.085969242246275751 -0.024545818115066776 0.051020253531135165 0.089656446057841704 0.0075202735504914173 -0.073379683727406192 0.1213790271234786 -0.02155084790231537 -0.085586308649185136 0.047530119569552554 -0.067675808533575438 0.059797891893874466 -0.0096126353173742046 0.17358138574236145 -0.077402052111280845 0.020266876958861139 0.075294335149280217 -0.050037086802663493 0.06745781613721781 0.045681329270511162 0.16472339324539065 -0.0001044720550316164 0.018208516250108869 0.0041877931022587904 -0.012265068779465458 -0.089160906011393024 0.017844126616689413 -0.017697013668085446 0.15414270393252374 -0.0045116857223494056 0.061346771135247502 -0.05054688639421924 0.036394274299074207 0.12347133194540007 0.023129771335294126 0.066540277433363132 -0.13990973164154247 -0.089912798513535924 0.12677947511761167 -0.088033562345821992 0.0065572102334204574 0.022919339254331979 -0.12848178039586555 -0.20856879247743071 0.11655794796613463 -0.085220685502102558 0.0076773153157694302 -0.052871243576156385 -0.03295816163871413 0.093951645963891536 -0.051828036014328449 0.10100270039962833 -0.059855945463084523 -0.041228377985708969 0.11308918449323016 -0.071530207400197637 -0.047046805374963599 0.062748077157442003 -0.05461854362039676 0.05855357081648585 -0.053536179706365983 -0.03887380455044491 0.029169328662569403 -0.050174135589169139 -0.074357629541846507 -0.041767744981887754 0.067313313079956624 0.0092733622316555787 -0.073975371203974558 -0.033110364750265422 -0.055275633557676077 -0.01583864807798788 0.11186429005178899 0.099089006803822502;1.857219124712475 -0.42722181176958607 -0.11129113698615968 -0.99312214590876191 -0.38460201503547592 0.35331271720032448 -0.30368258208769272 0.32196497477961378 0.44294593171051816 0.17473092604551954 -0.03471659738938921 0.12176340563631104 0.06280104827992497 -0.41154043956362829 -0.076417948249731665 -0.34645741464715329 0.041416851692197262 0.021565966088826945 -0.10390124158225039 0.13666990206729054 0.13324304549983024 0.041488069725315824 0.0780746370994716 0.2355436002795146 0.044642169817317515 0.036925863362369776 0.027523382769742755 0.1172129746846976 -0.23107175368974442 -0.019759592487245042 -0.026507838642180623 -0.020268767233337048 0.12459453104693861 0.036480195420185851 -0.099970199031893386 0.047991190399099347 0.049501606061262429 0.12054639471064116 -0.060205362284362643 0.0015035446493226268 -0.072472388288238113 -0.051924118897852048 -0.11061311821273608 -0.019171613907248076 0.11819504375792379 0.14389065193968784 0.027171329798948762 -0.12562503511665224 -0.1343529268185987 0.083560938182100572 -0.036404915260310394 0.0056060690959703237 0.14573638714112647 -0.054094372370226976 0.10456724314590524 -0.12572615030517742 0.016770415905992653 0.00180517205320079 0.049524372869626389 -0.046302794317738802 0.048505069503769691 0.13212618939419038 0.11434954151815564 0.004507877612944391 -0.09659555904736665 -0.065076034798570118 0.055683348907595437 0.12115583809655607 -0.051829685394614203 0.039586920993215501 -0.05352682098940454 0.11802058153459401 -0.059758139835001542 -0.092626072120648537 -0.0061580381542484285 -0.021946874616190208 -0.08211877876001504 -0.14256220842086928 -0.15859088448232558 -0.0233659298562734 0.071590944287599115 -0.013017471804377144 0.14803539273334304 0.02331437695318574 0.063800774310593264 0.14271926570121682 -0.10255325716555286 -0.062393577133678449 0.013423326775618357 0.058243744613576065 -0.15816699986615812 0.076157020409036769 0.042771039182571316 0.0849190659730754 0.067205060263137995 -0.066432063850598216 0.12338439575950044 0.057557910073736153 0.028995187284340019 -0.057228797040681303 -0.058738034658309152 0.094899857656604206 -0.15159291595360702 -0.052134718024672518 0.043344727933380706 0.054609051607744291 -0.13263231107427156 -0.14129976089319904 -0.070750984233247924 0.078887476335440396 -0.087556654257454083 -0.12665978251319526 -0.10437288235237446 -0.15775172922862946 -0.012282796214999107 -0.0018964519162917477 -0.13002428245901226 0.00069476549962973826 -0.10910087032721169 0.13308343939076162 0.10438061039076781 -0.050361281623734537 -0.026768586142352977 -0.060475487491742488 0.10894233820043395 -0.12880067860357128 -0.13664586866671535 0.034288024984869693 0.012420592776255592 -0.072389237974019624 -0.026539616984368061 -0.057477301583897369 -0.041004997329836271 0.036142396152929898 -0.22723311559992138 0.12730860952491313 -0.065222857755521488 0.044213872134105867 0.044974026266847496 0.11955600354851377 -0.11702865189366514 -0.019893301564134259 -0.031550837346941293 0.055698035699541869 -0.26589570072065 -0.12740541342104883 0.093567947971450516 0.14390864661947939 -0.014709496000787071 0.15301230454984108 -0.01441312739463034 0.033889249688317108 0.051547122954020468 0.087918973762928759 0.0066968965279105876 -0.072238826440525442 0.0043834476044251336 -0.14828834287543141 0.062592892389088231 -0.021206652680174576 -0.016181935207622497 0.0088558592966512129 -0.0051430055474724172 0.14751495520997426 0.040463744650847053 -0.15111750347253969 0.1288602381175856 0.048154637490650291 0.20409773499944434 0.085282930818664102 -0.06726918023732506 0.0022829152107368398 -0.081101572128020702 0.017005989972532741 0.0070184355661349861 0.060536585029296319 0.028308912280293617 -0.035238349382373281 -0.03530167866976134 -0.010579211986527507 -0.15887862169254258 0.21487680877940293 0.049223043373829586 0.11196743699186285 -0.091229270843983384 0.059592297847618152 -0.28280832354020902 0.01943345773736025 0.10786888335696844 0.28202686964598872 0.073592523849737856 -0.01854199605841229 0.068519485210241288 0.005091309083979762 0.04135124799482455 -0.078812673288633381 0.0031497671386454709 0.23609146926629238 -0.21627344031273774 -0.026887160930633515 0.013791906754998081 0.015758104532097 0.080588272685780893 0.077392161323189615 0.03612656131886114 0.14578237653368004 0.15475765407013817 0.10755021779781654 -0.034871545252175354 -0.011183862291213917 -0.048512045123460981 0.063020596576168431 0.030494465461071957 -0.076444086830275662 -0.078205930129505385 -0.052473271739781092 0.11673342755217764 0.056667605595520948 0.04015435028708364 -0.041205556935069311 -0.052502739208528146 -0.039391545214223507 0.054327910084706568 0.039671735199963615 -0.079745854976382813 -0.16308102130963098 0.041536822555129978 -0.065638964608760481 0.076263198110481462 0.019223929770738276 0.05417731187618692 0.067433070069606249 0.037868501755218505 -0.054816265204249336 -0.061019039623912363 0.086541986475927771 0.069878296816271834 -0.080524222389919436 -0.14859468621503677 -0.062052193994170349 -0.11221812472999107 0.082509050793100544 0.02256500306180587 -0.054993518332816044 -0.050862512584575567 -0.018198647312675082 -0.16340514611390183 0.0059305760596610729 -0.0099795999341392994 0.065486542918144083 0.073604716239544066 -0.092264323196034934 0.088598151280247089 0.049134637541461496 0.097719125720985137 0.085347875647959329 0.035476434338577403 0.15820276746072867 0.080141120113098971 0.06368866905430895 0.0092301351429219872 0.03249943416541605 -0.063461598453945361 0.13122789721744055 -0.22495117651630478 0.00014002164596433567 -0.040735605539879177 -0.14981422380587262 0.0087669268166377518 -0.16297723869302005 0.00091890786331009946 -0.10732825083635723 -0.12586091499001636 -0.068329020878601418 0.064391999193035732 -0.10212916462907222 -0.04705754316620174 -0.073797271034509504 0.12989413355959489 0.084090139234966887 -0.049187889112422917 0.1741700017018738 0.10758364068884106 0.040088993850460511 0.081718701447601599 0.020294780801494664 -0.074197301831906329 0.10514169410973123 -0.11645594710453316 0.10621593820367822 0.01498892301231349 0.032049076349531282 -0.057716163271160179 0.097982552607187134 0.0978589052146418 0.065217949641639975 -0.0053113112881871989 -0.12376698422605088 0.13215559410947592 -0.04900214385688717 -0.074463630085099708 -0.019099795557320387 -0.022073001986831747 -0.051907633345705285 -0.030837919216935374 -0.063525015749714767 -0.063526073376274306 0.1060042129269847 0.002910423963744883 0.028693550992053729 -0.05006734015222674 -0.13606722871937232 -0.058788205757474531 -0.04961896701381438 0.028232754841995424 -0.066852211599774863 -0.070143449513833583 0.018127378546674917 -0.067404187499302839 0.045642145296106391 -0.048411404467439793 -7.5135867684493311e-05 0.093172863139778656 -0.0051084092880564402 -0.087280549640424449 -0.1125117284935202 -0.073509598577311569 -0.067399130712786193 0.01418349978033526 -0.091380026001466219 0.17554301024667326 0.16352377264971749 -0.056327624531487631 0.15409723146013241 -0.12917533577888748 0.088659227535919594 0.11009606032157696 -0.041440997478682552 0.11309571165709319 -0.12892202633547198 0.027395793359757271 0.072354655177736329 0.0575251243125907 0.10841022777893286 0.13065732631145599 -0.073752127705368514 0.06416720788133147 0.11831739850635753 -0.053709325140658189;-0.70928544684477057 0.086397155042206103 -0.50637284611465783 0.95911711842512581 -0.13876749228275567 -0.20926139794506651 -0.32499867288749124 -0.033247808111715384 -0.23615592168793306 -0.36852361964822622 -0.0059022007308959191 0.03497879110465657 0.046267708969498139 0.024826972775596475 0.074753053649736959 0.047934128405283216 0.0047169455359927469 -0.078976716867142749 -0.10984018651716246 -0.18361836063013393 -0.11097733997663829 -0.073908056904575414 0.10419796665047086 0.076842985177802692 -0.061533098027505791 0.084644276043972871 0.010127298418883802 -0.00048473648037804934 0.087470789338761068 0.046576555831556482 -0.1341553009093697 -0.18694869083037943 -0.037028512943596714 0.19340945408029431 -0.026770045321392946 0.11249111763366133 -0.032426018396085728 0.13620539564124287 -0.1554582072886368 0.053281479924811942 -0.091657479860309768 -0.053529338949043895 -0.035257671925560681 -0.081909397902862391 0.047977981231279512 0.084742201186872798 0.037183989923895509 0.12725230951231897 -0.11285478639487798 -0.069876770713994216 0.018148192083496151 -0.088453640468911562 -0.029856894107307585 -0.15240100887725058 -0.038668242978111736 0.10229617605556085 -0.057917146323120131 -0.06186754951783504 -0.029724114923093958 0.047244140047828266 0.18307783156084759 -0.19188560351726289 0.056702686655980744 0.085386082984209855 -0.044991201887042601 0.045718045717849889 -0.078860572008069951 0.036990321418973612 -0.079639426319047552 -0.11045062085919168 0.062297411852981509 -0.031260648167562216 0.035964590566244223 -0.11752561910249937 0.12421325380266228 -0.12037841575380183 -0.06187382183411174 -0.10028992445020873 -0.082246948290710234 0.013086651158763313 -0.014909086501107678 -0.075070515608227875 -0.056498622285918072 0.0077544310760212093 -0.032126880443344337 0.11688137788458486 0.0030106066542149685 -0.089561376918330965 0.00040042813676915024 0.0059083994703740331 -0.010966411132798313 -0.084613822299673694 -0.095358661037510881 0.10343978310202039 -0.044494632542558539 0.15738828710093228 0.095948346279086216 0.052555787712723831 -0.0068252350916194271 0.088553591378493474 -0.039590036254108472 -0.10140639332542183 0.031820497079438459 0.0071959536873698092 0.12332037179713493 -0.020334384153400824 0.19571284320981827 -0.063068824890995592 0.022376252456595237 -0.094249810877515661 -0.14983252793398744 0.091547676672340983 0.18358893058924367 0.059233532114921619 0.066013842139732923 -0.10660753593587204 -0.16169842030989218 0.018030888706030052 0.096899554421828765 -0.093086042490635013 -0.12632952715971413 -0.052758752940606612 -0.04924006687934343 0.14025534155729855 0.0070572717435942048 -0.02694072761717111 0.07365583595170945 -0.099871485867672402 0.098040016282234771 0.074663811137717445 0.054972688267259547 -0.049752510379329706 -0.051171233256342596 0.11036083517285421 -0.11202750246578198 0.087566440287745337 0.017377942937526016 0.084610875805037289 0.095596006444123791 -0.040241509477895822 -0.0063517240481366774 0.13153731930248971 -0.02162452110419933 0.071179560079231333 -0.029671740517497519 0.04168616150785804 -0.062336663058263915 -0.10361880622610525 -0.0086545205171496692 -0.11516115644974202 0.0078562935935309157 0.15237082662252555 -0.037829940071397762 0.0018759512191184541 -0.11111642018003089 -0.054283214409328456 0.065074156252463766 0.026269927159184109 0.065649657143750206 0.11043860045736832 0.063526820535798806 0.055773509274745711 0.090084556881866146 -0.1065541168132848 0.0074880862697483432 0.1145619123578919 0.099458567276260956 0.10405939189823368 0.029654823780889662 -0.07785875914899347 0.10493348500090594 0.01373564858091727 -0.093899036165970687 0.03245726568436598 0.061135397142797039 -0.0020555862946180382 -0.10996853584109392 0.078277217450025874 -0.15599901385412362 -0.028737333131819993 0.033521851414441702 -0.1619501011395231 0.057072591589828324 -0.040175478156676006 0.11525632854032554 0.06995544528063391 -0.012361693611887475 -0.020586267526726591 -0.09661923822145059 -0.071973855476733323 -0.053090712211591166 -0.024114956307146777 -0.028909702985571131 -0.21342622102985281 -0.034251647089633935 0.0028202812712620779 0.069830471028490188 0.041587309512935954 0.080045256213046617 -0.080510622707409579 -0.10013130413439661 0.079833320124892193 -0.13345995143370429 0.065498721018003109 -0.049837077053302682 0.034579806894351521 -0.046603773550639091 -0.074353094079834064 0.14817846672795229 0.045554575962381265 -0.01871927244834052 0.0013931194816141877 -0.12075953997907966 -0.054395237988691163 0.1205356044369552 0.017470298527576162 0.025417615574395647 0.15451669564754245 0.11248129345493163 0.077954114859668147 0.090071316703902782 0.073185140469386664 0.14746330786942796 -0.044035030152161529 -0.077397914477421614 -0.042585487821264596 -0.090940306942423374 0.0077566281364148315 0.073401328069245986 0.027314730578722451 0.050384509768385662 -0.10418866052984661 0.028979212168762456 0.13774940030591218 -0.0087292732619887164 -0.097940653068050706 0.070676298682146796 -0.021509222540066465 0.070463293467269372 -0.0094720067554972202 0.083091529951158011 -0.080620411356868746 -0.01614009898677626 -0.030677428868068568 0.084590290093071063 -0.014489786587453755 0.068377650681782809 0.1034973265562575 -0.051871092188832159 0.0021893701515412105 -0.06969511858632163 0.019631879279942158 0.13126395058839513 -0.07291209133688116 -0.010256810656141063 0.080634069984370838 -0.070610427582668348 0.049498792023641443 0.090073165629569421 0.0076535134539794224 0.030972354859029542 -0.029719678559668811 -0.092623326293766392 0.10086576214922698 0.010518278368425858 0.025875338657929986 -0.013371533144883853 0.021375833759507856 -0.011003778121783374 -0.053288875642222663 0.12498988508290651 0.017706455207035215 0.095849792569078926 0.037536222105917096 0.1200682823140661 0.11633821029069923 0.1247618852653503 -0.11579932635073276 0.13162797191455602 0.053702590368463997 -0.02399002403291995 0.10533370776570725 -0.086057331472836077 -0.057295015320623734 0.065817739620313592 -0.011319090378543584 0.10625506135506409 -0.0015607615907453566 0.077037363252786026 0.027380827626662066 0.027878590642759216 0.085513089565306885 0.061780670034822453 0.052214739546554846 -0.087466928794496523 0.036218050395157415 -0.12909927820853118 0.0026492989537119562 0.11849246844431488 -0.0051550017291000297 -0.11510194696796593 0.011882361524518457 -0.017400730388734107 0.0020404249943276626 -0.06841356781133015 -0.050589840774150102 0.12744896532410996 -0.12581492820271911 -0.0086122372198396014 0.054081885838687539 0.0090234063449612066 -0.075663580050333981 -0.056976225459521995 -0.10331933956811097 0.016650907501307051 -0.066134936665416769 -0.0013356764477125364 -0.098413156621293713 0.0037688191822199892 -0.10893158590588785 0.10261692775460009 -0.024668845859527899 0.086668874293885367 -0.07634849239442161 0.067330423556117902 -0.080429140181450601 0.11798856464759605 -0.14572649135325838 0.093684462847046707 -0.034607170074703722 0.046276085255028708 -0.011233623380795929 -0.14332619641520558 -0.055171943153773828 0.044688914691469961 -0.042377994627674331 0.084466717441294942 0.12149248257769112 0.057917470706064081 0.016946392910430895 -0.01579033256332309 -0.05193766518655378 0.058116740820117481 0.082401687425525824 -0.090972440649600209 -0.0057378864827466788 0.0027552834115018169 -0.12526647735727001 -0.012988926160634268];

% Layer 2
b2 = [0.41992736220266796;0.22977999444686625;-0.57499546390994016;-0.022588224521103269;0.44036074057116986;0.23640645763237494;0.26417721929582122];
LW2_1 = [1.3843284216477927 -0.73974808195928288 0.48644510899841104 -1.0252025912257521 1.0953614089317631 -1.385288999026181 0.77956192712214412 -1.2019854835963322 0.043398489082214019 -0.63535189367434597;-0.53918417506259053 0.67227722436952286 -1.6903815562050886 1.7200887207009183 -1.2752245096602692 -0.11179205917976895 0.45877333021500311 -0.011978754711481035 -1.3537158012532271 0.035429654715223483;0.074881513346999842 1.3007792749448872 -1.1939163827988981 -1.0952378257475124 -1.1130155349168003 1.1175523201529185 0.83630775141734448 -0.62772821362306852 1.2145359897668746 -1.3491912850894527;-1.3551120671419274 0.42522575959028219 1.5423211704426794 -0.60403921867863075 -1.1382393241933149 -0.35065340600576805 -0.61140553776046147 0.53883879403112234 1.3307030334537571 0.081078471567657295;0.37515780741114196 -1.2500044642337471 1.1308900539492917 1.5255332466138805 -1.2967422497561933 -1.148865139115375 -0.58821570172224125 -1.4288343962840513 -1.0552159870929021 0.41982072785828228;0.52668279677677188 -0.20757854343059898 1.2507806221655646 0.56213807480997036 1.6095812004690422 0.79125232524428957 -1.7400080879535482 0.5697536256496849 -0.91219946499448601 -0.11203053313530027;-0.66345042939223775 0.70420769173651998 -0.51427344601362335 -0.44918462613750471 1.6028518364484774 1.3208467800274717 0.86125504916287043 -1.7237477814192679 -1.1465686048328896 0.27736576738071994];

% ===== SIMULATION ========

% Dimensions
Q = size(x1,1); % samples

% Input 1
x1 = x1';
xp1 = mapminmax_apply(x1,x1_step1_gain,x1_step1_xoffset,x1_step1_ymin);

% Layer 1
a1 = tansig_apply(repmat(b1,1,Q) + IW1_1*xp1);

% Layer 2
a2 = softmax_apply(repmat(b2,1,Q) + LW2_1*a1);

% Output 1
y1 = a2;
y1 = y1';
end

% ===== MODULE FUNCTIONS ========

% Map Minimum and Maximum Input Processing Function
function y = mapminmax_apply(x,settings_gain,settings_xoffset,settings_ymin)
y = bsxfun(@minus,x,settings_xoffset);
y = bsxfun(@times,y,settings_gain);
y = bsxfun(@plus,y,settings_ymin);
end

% Competitive Soft Transfer Function
function a = softmax_apply(n)
nmax = max(n,[],1);
n = bsxfun(@minus,n,nmax);
numer = exp(n);
denom = sum(numer,1);
denom(denom == 0) = 1;
a = bsxfun(@rdivide,numer,denom);
end

% Sigmoid Symmetric Transfer Function
function a = tansig_apply(n)
a = 2 ./ (1 + exp(-2*n)) - 1;
end
